<?xml version="1.0"?>
<opencv_storage>
<opencv_ml_svm>
  <format>3</format>
  <svmType>C_SVC</svmType>
  <kernel>
    <type>RBF</type>
    <gamma>1.</gamma></kernel>
  <C>50.</C>
  <term_criteria><epsilon>1.1920928955078125e-07</epsilon>
    <iterations>1000</iterations></term_criteria>
  <var_count>12</var_count>
  <class_count>2</class_count>
  <class_labels type_id="opencv-matrix">
    <rows>2</rows>
    <cols>1</cols>
    <dt>i</dt>
    <data>
      -1 1</data></class_labels>
  <sv_total>119</sv_total>
  <support_vectors>
    <_>
      1.30434781e-01 4.34782617e-02 2.17391308e-02 1.52173921e-01
      4.34782617e-02 2.17391308e-02 8.69565234e-02 1.52173921e-01
      8.69565234e-02 4.34782617e-02 8.69565234e-02 1.30434781e-01</_>
    <_>
      1.19402982e-01 5.97014911e-02 1.04477607e-01 1.64179102e-01
      1.04477607e-01 7.46268630e-02 7.46268630e-02 1.19402982e-01
      4.47761193e-02 2.98507456e-02 7.46268630e-02 2.98507456e-02</_>
    <_>
      8.51063803e-02 1.48936167e-01 6.38297871e-02 4.25531901e-02
      4.25531901e-02 6.38297871e-02 6.38297871e-02 8.51063803e-02
      1.27659574e-01 1.06382973e-01 8.51063803e-02 8.51063803e-02</_>
    <_>
      6.81818202e-02 2.04545468e-01 1.59090906e-01 2.27272734e-02
      2.27272734e-02 4.54545468e-02 4.54545468e-02 4.54545468e-02
      2.27272734e-02 1.13636367e-01 1.59090906e-01 9.09090936e-02</_>
    <_>
      2.27272734e-02 6.81818202e-02 1.81818187e-01 1.81818187e-01
      4.54545468e-02 9.09090936e-02 9.09090936e-02 4.54545468e-02
      4.54545468e-02 1.36363640e-01 6.81818202e-02 2.27272734e-02</_>
    <_>
      6.94444478e-02 2.77777780e-02 5.55555560e-02 1.52777776e-01
      2.77777780e-02 1.25000000e-01 9.72222239e-02 8.33333358e-02
      1.11111112e-01 8.33333358e-02 1.11111112e-01 5.55555560e-02</_>
    <_>
      9.52380970e-02 9.52380970e-02 7.14285746e-02 7.14285746e-02
      7.14285746e-02 1.19047619e-01 4.76190485e-02 7.14285746e-02
      7.14285746e-02 7.14285746e-02 1.19047619e-01 9.52380970e-02</_>
    <_>
      8.33333358e-02 4.16666679e-02 1.45833343e-01 1.25000000e-01
      4.16666679e-02 1.04166672e-01 6.25000000e-02 1.04166672e-01
      4.16666679e-02 8.33333358e-02 1.04166672e-01 6.25000000e-02</_>
    <_>
      4.76190485e-02 9.52380970e-02 7.14285746e-02 2.38095243e-02
      9.52380970e-02 9.52380970e-02 9.52380970e-02 4.76190485e-02
      7.14285746e-02 1.66666672e-01 9.52380970e-02 9.52380970e-02</_>
    <_>
      4.54545468e-02 1.59090906e-01 3.18181813e-01 2.27272734e-02 0.
      2.27272734e-02 2.27272734e-02 6.81818202e-02 6.81818202e-02
      1.59090906e-01 1.13636367e-01 0.</_>
    <_>
      8.43373463e-02 1.08433731e-01 8.43373463e-02 4.81927693e-02
      3.61445770e-02 1.08433731e-01 8.43373463e-02 8.43373463e-02
      9.63855386e-02 7.22891539e-02 8.43373463e-02 1.08433731e-01</_>
    <_>
      1.21951215e-01 2.43902430e-02 7.31707290e-02 1.09756097e-01
      2.43902430e-02 1.82926819e-01 4.87804860e-02 8.53658468e-02
      7.31707290e-02 9.75609720e-02 1.34146333e-01 2.43902430e-02</_>
    <_>
      6.25000000e-02 1.66666672e-01 6.25000000e-02 8.33333358e-02
      2.08333340e-02 6.25000000e-02 8.33333358e-02 4.16666679e-02
      1.25000000e-01 4.16666679e-02 1.04166672e-01 1.45833343e-01</_>
    <_>
      7.93650821e-02 7.93650821e-02 1.58730164e-01 6.34920672e-02
      3.17460336e-02 1.11111119e-01 7.93650821e-02 6.34920672e-02
      1.42857149e-01 9.52381045e-02 4.76190522e-02 4.76190522e-02</_>
    <_>
      1.88679248e-02 1.13207549e-01 3.77358496e-02 5.66037744e-02
      5.66037744e-02 7.54716992e-02 5.66037744e-02 9.43396240e-02
      9.43396240e-02 1.88679248e-01 1.13207549e-01 9.43396240e-02</_>
    <_>
      6.89655170e-02 6.89655170e-02 8.62068981e-02 8.62068981e-02
      8.62068981e-02 1.72413792e-02 3.44827585e-02 3.44827585e-02
      1.72413792e-02 2.75862068e-01 1.20689653e-01 1.03448272e-01</_>
    <_>
      1.53846154e-02 1.07692309e-01 7.69230798e-02 3.07692308e-02
      4.61538471e-02 6.15384616e-02 6.15384616e-02 3.07692308e-02
      1.23076923e-01 3.23076934e-01 7.69230798e-02 4.61538471e-02</_>
    <_>
      1.25000000e-01 1.00000001e-01 2.50000004e-02 1.00000001e-01
      5.00000007e-02 5.00000007e-02 7.50000030e-02 7.50000030e-02
      5.00000007e-02 1.00000001e-01 1.00000001e-01 1.50000006e-01</_>
    <_>
      2.85714287e-02 2.28571430e-01 5.71428575e-02 2.85714287e-02
      8.57142881e-02 1.42857149e-01 0. 0. 2.85714287e-02 2.28571430e-01
      1.14285715e-01 5.71428575e-02</_>
    <_>
      2.12765951e-02 3.19148928e-01 1.27659574e-01 4.25531901e-02
      2.12765951e-02 6.38297871e-02 2.12765951e-02 4.25531901e-02
      8.51063803e-02 8.51063803e-02 6.38297871e-02 1.06382973e-01</_>
    <_>
      5.71428575e-02 1.14285715e-01 1.42857149e-01 5.71428575e-02
      4.28571440e-02 2.85714287e-02 1.00000001e-01 8.57142881e-02
      1.57142863e-01 1.57142863e-01 4.28571440e-02 1.42857144e-02</_>
    <_>
      1.46341458e-01 4.87804860e-02 9.75609720e-02 9.75609720e-02
      4.87804860e-02 1.21951215e-01 1.21951215e-01 7.31707290e-02
      2.43902430e-02 1.70731694e-01 2.43902430e-02 2.43902430e-02</_>
    <_>
      4.76190485e-02 1.90476194e-01 9.52380970e-02 9.52380970e-02
      4.76190485e-02 9.52380970e-02 2.38095243e-02 4.76190485e-02
      1.19047619e-01 1.19047619e-01 7.14285746e-02 4.76190485e-02</_>
    <_>
      3.07692308e-02 3.07692308e-02 7.69230798e-02 1.53846160e-01
      6.15384616e-02 6.15384616e-02 1.53846160e-01 3.07692308e-02
      4.61538471e-02 1.53846160e-01 9.23076943e-02 1.07692309e-01</_>
    <_>
      2.17391308e-02 8.69565234e-02 1.08695656e-01 4.34782617e-02
      2.17391308e-02 1.30434781e-01 8.69565234e-02 4.34782617e-02
      6.52173907e-02 1.52173921e-01 6.52173907e-02 1.73913047e-01</_>
    <_>
      3.57142873e-02 1.42857149e-01 2.14285731e-01 7.14285746e-02
      1.07142866e-01 3.57142873e-02 3.57142873e-02 7.14285746e-02
      3.57142873e-02 2.14285731e-01 3.57142873e-02 0.</_>
    <_>
      1.07692309e-01 7.69230798e-02 1.53846160e-01 4.61538471e-02
      4.61538471e-02 9.23076943e-02 6.15384616e-02 4.61538471e-02
      4.61538471e-02 1.69230774e-01 1.07692309e-01 4.61538471e-02</_>
    <_>
      4.83870953e-02 9.67741907e-02 4.83870953e-02 9.67741907e-02
      1.12903222e-01 8.06451589e-02 6.45161271e-02 4.83870953e-02
      9.67741907e-02 1.45161286e-01 4.83870953e-02 1.12903222e-01</_>
    <_>
      0. 1.78571433e-01 7.14285746e-02 1.07142866e-01 7.14285746e-02
      1.42857149e-01 1.07142866e-01 3.57142873e-02 1.07142866e-01
      7.14285746e-02 3.57142873e-02 7.14285746e-02</_>
    <_>
      1.13636367e-01 1.36363640e-01 4.54545468e-02 4.54545468e-02
      6.81818202e-02 6.81818202e-02 4.54545468e-02 2.27272734e-02
      9.09090936e-02 1.36363640e-01 4.54545468e-02 1.81818187e-01</_>
    <_>
      7.54716992e-02 1.32075474e-01 1.13207549e-01 1.32075474e-01
      1.88679248e-02 7.54716992e-02 7.54716992e-02 9.43396240e-02
      7.54716992e-02 1.50943398e-01 1.88679248e-02 3.77358496e-02</_>
    <_>
      3.50877196e-02 8.77192989e-02 1.05263159e-01 3.50877196e-02
      1.75438598e-02 5.26315793e-02 3.50877196e-02 8.77192989e-02
      1.40350878e-01 1.75438598e-01 1.92982465e-01 3.50877196e-02</_>
    <_>
      1.02564104e-01 1.53846160e-01 5.12820520e-02 5.12820520e-02
      2.56410260e-02 1.02564104e-01 5.12820520e-02 7.69230798e-02
      5.12820520e-02 1.28205135e-01 2.56410260e-02 1.79487184e-01</_>
    <_>
      3.92156877e-02 5.88235334e-02 3.92156877e-02 1.17647067e-01
      5.88235334e-02 7.84313753e-02 1.56862751e-01 7.84313753e-02
      1.56862751e-01 1.56862751e-01 5.88235334e-02 0.</_>
    <_>
      1.04651161e-01 9.30232555e-02 6.97674453e-02 6.97674453e-02
      4.65116277e-02 5.81395328e-02 1.27906978e-01 8.13953504e-02
      6.97674453e-02 1.74418598e-01 4.65116277e-02 5.81395328e-02</_>
    <_>
      7.01754391e-02 1.92982465e-01 8.77192989e-02 3.50877196e-02
      5.26315793e-02 7.01754391e-02 8.77192989e-02 1.05263159e-01
      7.01754391e-02 1.40350878e-01 3.50877196e-02 5.26315793e-02</_>
    <_>
      5.97014911e-02 7.46268630e-02 1.04477607e-01 2.98507456e-02
      8.95522386e-02 5.97014911e-02 5.97014911e-02 1.04477607e-01
      1.64179102e-01 4.47761193e-02 1.19402982e-01 8.95522386e-02</_>
    <_>
      6.32911399e-02 1.77215189e-01 1.39240503e-01 3.79746854e-02
      1.26582282e-02 3.79746854e-02 3.79746854e-02 0. 1.13924056e-01
      1.89873427e-01 1.26582280e-01 6.32911399e-02</_>
    <_>
      1.20689653e-01 2.41379306e-01 6.89655170e-02 8.62068981e-02 0.
      3.44827585e-02 1.72413792e-02 5.17241359e-02 8.62068981e-02
      1.55172408e-01 8.62068981e-02 5.17241359e-02</_>
    <_>
      1.86666667e-01 5.33333346e-02 1.33333337e-02 1.59999996e-01
      3.99999991e-02 9.33333337e-02 7.99999982e-02 7.99999982e-02
      2.66666673e-02 1.46666676e-01 5.33333346e-02 6.66666701e-02</_>
    <_>
      6.77966103e-02 5.08474559e-02 1.01694912e-01 6.77966103e-02
      6.77966103e-02 6.77966103e-02 1.18644066e-01 1.01694912e-01
      5.08474559e-02 1.18644066e-01 1.52542368e-01 3.38983051e-02</_>
    <_>
      1.17647067e-01 5.88235334e-02 1.37254909e-01 7.84313753e-02
      1.37254909e-01 3.92156877e-02 3.92156877e-02 7.84313753e-02 0.
      1.37254909e-01 5.88235334e-02 1.17647067e-01</_>
    <_>
      2.70270277e-02 1.89189196e-01 9.45945978e-02 9.45945978e-02
      4.05405425e-02 5.40540554e-02 2.70270277e-02 1.35135138e-02
      6.75675720e-02 1.35135144e-01 9.45945978e-02 1.62162170e-01</_>
    <_>
      3.70370373e-02 1.11111112e-01 1.66666672e-01 5.55555560e-02
      5.55555560e-02 9.25925970e-02 1.85185187e-02 7.40740746e-02
      7.40740746e-02 1.29629627e-01 1.29629627e-01 5.55555560e-02</_>
    <_>
      0. 1.66666672e-01 1.11111112e-01 3.70370373e-02 1.85185187e-02
      1.29629627e-01 1.11111112e-01 0. 1.85185194e-01 1.29629627e-01
      5.55555560e-02 5.55555560e-02</_>
    <_>
      1.36363640e-01 1.13636367e-01 6.81818202e-02 6.81818202e-02
      6.81818202e-02 9.09090936e-02 2.27272734e-02 1.13636367e-01
      6.81818202e-02 9.09090936e-02 9.09090936e-02 6.81818202e-02</_>
    <_>
      1.45161286e-01 3.22580636e-02 6.45161271e-02 6.45161271e-02
      1.12903222e-01 9.67741907e-02 9.67741907e-02 1.12903222e-01
      4.83870953e-02 1.45161286e-01 4.83870953e-02 3.22580636e-02</_>
    <_>
      4.87804860e-02 2.43902430e-02 9.75609720e-02 7.31707290e-02
      4.87804860e-02 4.87804860e-02 2.43902430e-02 7.31707290e-02
      1.95121944e-01 9.75609720e-02 1.21951215e-01 1.46341458e-01</_>
    <_>
      3.57142873e-02 2.50000000e-01 1.07142866e-01 0. 3.57142873e-02 0.
      3.57142873e-02 3.57142873e-02 1.07142866e-01 1.78571433e-01
      1.07142866e-01 1.07142866e-01</_>
    <_>
      1.39534891e-01 9.30232555e-02 1.16279066e-01 1.16279066e-01
      4.65116277e-02 9.30232555e-02 6.97674453e-02 4.65116277e-02
      4.65116277e-02 1.62790701e-01 0. 6.97674453e-02</_>
    <_>
      1.34615391e-01 5.76923117e-02 3.84615399e-02 9.61538479e-02
      5.76923117e-02 1.92307699e-02 3.84615399e-02 1.53846160e-01
      1.34615391e-01 5.76923117e-02 1.15384623e-01 9.61538479e-02</_>
    <_>
      5.26315793e-02 2.36842111e-01 1.84210524e-01 5.26315793e-02
      5.26315793e-02 5.26315793e-02 5.26315793e-02 2.63157897e-02
      5.26315793e-02 1.31578952e-01 2.63157897e-02 7.89473653e-02</_>
    <_>
      4.44444455e-02 1.11111112e-01 8.88888910e-02 2.22222228e-02
      6.66666701e-02 2.22222228e-02 8.88888910e-02 6.66666701e-02
      6.66666701e-02 2.00000003e-01 1.33333340e-01 8.88888910e-02</_>
    <_>
      8.92857164e-02 1.25000000e-01 1.07142866e-01 5.35714328e-02
      5.35714328e-02 1.78571437e-02 1.42857149e-01 7.14285746e-02
      1.07142866e-01 1.78571433e-01 1.78571437e-02 3.57142873e-02</_>
    <_>
      0. 9.75609720e-02 1.21951215e-01 4.87804860e-02 7.31707290e-02
      2.43902430e-02 2.43902430e-02 2.43902430e-02 7.31707290e-02
      2.19512194e-01 1.95121944e-01 9.75609720e-02</_>
    <_>
      1.06382973e-01 2.12765951e-02 8.51063803e-02 2.12765951e-02
      1.27659574e-01 6.38297871e-02 6.38297871e-02 6.38297871e-02
      8.51063803e-02 2.34042540e-01 4.25531901e-02 8.51063803e-02</_>
    <_>
      7.14285746e-02 4.28571463e-01 0. 0. 0. 0. 0. 7.14285746e-02 0.
      2.85714298e-01 7.14285746e-02 7.14285746e-02</_>
    <_>
      7.35294148e-02 1.47058824e-02 1.32352948e-01 1.17647059e-01
      4.41176482e-02 8.82352963e-02 5.88235296e-02 5.88235296e-02
      4.41176482e-02 1.32352948e-01 1.32352948e-01 1.02941178e-01</_>
    <_>
      8.82352963e-02 1.32352948e-01 2.94117648e-02 1.32352948e-01
      2.94117648e-02 1.32352948e-01 1.17647059e-01 1.02941178e-01
      4.41176482e-02 1.17647059e-01 2.94117648e-02 4.41176482e-02</_>
    <_>
      1.53846160e-01 2.05128208e-01 2.56410260e-02 5.12820520e-02
      1.28205135e-01 5.12820520e-02 2.56410260e-02 1.28205135e-01 0.
      5.12820520e-02 0. 1.79487184e-01</_>
    <_>
      1.28205130e-02 1.28205130e-02 2.43589744e-01 2.56410260e-02 0.
      3.84615399e-02 1.28205130e-02 1.28205130e-02 1.79487184e-01
      2.30769232e-01 1.53846160e-01 7.69230798e-02</_>
    <_>
      5.26315793e-02 5.26315793e-02 1.92982465e-01 7.01754391e-02
      1.75438598e-02 3.50877196e-02 7.01754391e-02 8.77192989e-02
      8.77192989e-02 8.77192989e-02 1.92982465e-01 5.26315793e-02</_>
    <_>
      3.92156877e-02 2.15686277e-01 9.80392173e-02 1.96078438e-02
      5.88235334e-02 1.96078438e-02 7.84313753e-02 1.17647067e-01 0.
      2.54901975e-01 7.84313753e-02 1.96078438e-02</_>
    <_>
      9.72222239e-02 2.77777780e-02 8.33333358e-02 1.11111112e-01
      4.16666679e-02 9.72222239e-02 1.11111112e-01 1.11111112e-01
      4.16666679e-02 2.08333328e-01 4.16666679e-02 2.77777780e-02</_>
    <_>
      2.04081628e-02 2.24489793e-01 2.04081628e-02 1.22448981e-01 0.
      8.16326514e-02 6.12244904e-02 6.12244904e-02 1.42857134e-01
      8.16326514e-02 1.02040812e-01 8.16326514e-02</_>
    <_>
      5.35714328e-02 7.14285746e-02 1.78571433e-01 5.35714328e-02
      7.14285746e-02 5.35714328e-02 7.14285746e-02 7.14285746e-02
      3.57142873e-02 1.96428582e-01 8.92857164e-02 5.35714328e-02</_>
    <_>
      8.33333358e-02 1.85185187e-02 7.40740746e-02 1.94444448e-01
      3.70370373e-02 9.25925970e-02 1.38888896e-01 6.48148134e-02
      6.48148134e-02 1.29629627e-01 5.55555560e-02 4.62962985e-02</_>
    <_>
      1.27659574e-01 6.38297871e-02 4.25531901e-02 6.38297871e-02
      8.51063803e-02 4.25531901e-02 6.38297871e-02 1.06382973e-01
      6.38297871e-02 1.91489354e-01 6.38297871e-02 8.51063803e-02</_>
    <_>
      1.01449281e-01 2.89855078e-02 1.73913047e-01 1.15942031e-01
      1.15942031e-01 4.34782617e-02 1.01449281e-01 8.69565234e-02
      1.44927539e-02 1.88405797e-01 2.89855078e-02 0.</_>
    <_>
      1.02941178e-01 7.35294148e-02 1.02941178e-01 1.32352948e-01
      2.94117648e-02 8.82352963e-02 1.02941178e-01 5.88235296e-02
      4.41176482e-02 2.05882356e-01 4.41176482e-02 1.47058824e-02</_>
    <_>
      2.04081628e-02 2.04081628e-02 1.42857134e-01 1.02040812e-01
      8.16326514e-02 4.08163257e-02 6.12244904e-02 8.16326514e-02
      4.08163257e-02 1.63265303e-01 4.08163257e-02 2.04081625e-01</_>
    <_>
      3.12500000e-02 4.68750000e-02 1.71875000e-01 9.37500000e-02
      3.12500000e-02 1.25000000e-01 1.09375000e-01 3.12500000e-02
      4.68750000e-02 2.18750000e-01 4.68750000e-02 4.68750000e-02</_>
    <_>
      7.99999982e-02 3.99999991e-02 9.99999940e-02 3.99999991e-02
      3.99999991e-02 5.99999987e-02 1.99999988e-01 7.99999982e-02
      3.99999991e-02 1.19999997e-01 9.99999940e-02 9.99999940e-02</_>
    <_>
      0. 8.33333358e-02 1.04166672e-01 4.16666679e-02 4.16666679e-02
      4.16666679e-02 8.33333358e-02 6.25000000e-02 8.33333358e-02
      2.91666687e-01 6.25000000e-02 1.04166672e-01</_>
    <_>
      7.14285746e-02 1.60714298e-01 5.35714328e-02 1.07142866e-01
      5.35714328e-02 5.35714328e-02 8.92857164e-02 1.07142866e-01
      5.35714328e-02 1.42857149e-01 5.35714328e-02 5.35714328e-02</_>
    <_>
      1.78571433e-01 3.57142873e-02 3.57142873e-02 1.07142866e-01
      3.57142873e-02 2.14285731e-01 7.14285746e-02 1.07142866e-01
      7.14285746e-02 3.57142873e-02 3.57142873e-02 7.14285746e-02</_>
    <_>
      1.38461545e-01 3.07692308e-02 4.61538471e-02 1.38461545e-01
      7.69230798e-02 6.15384616e-02 1.69230774e-01 6.15384616e-02
      1.07692309e-01 6.15384616e-02 3.07692308e-02 7.69230798e-02</_>
    <_>
      5.12820520e-02 1.28205135e-01 5.12820520e-02 7.69230798e-02
      1.79487184e-01 7.69230798e-02 2.56410260e-02 5.12820520e-02
      5.12820520e-02 2.30769232e-01 2.56410260e-02 5.12820520e-02</_>
    <_>
      7.84313753e-02 3.92156877e-02 1.37254909e-01 5.88235334e-02
      5.88235334e-02 1.17647067e-01 7.84313753e-02 0. 9.80392173e-02
      2.15686277e-01 3.92156877e-02 7.84313753e-02</_>
    <_>
      6.55737668e-02 1.63934417e-02 3.27868834e-02 1.47540972e-01
      3.27868834e-02 1.47540972e-01 1.14754096e-01 3.27868834e-02
      1.47540972e-01 9.83606502e-02 4.91803251e-02 1.14754096e-01</_>
    <_>
      6.77966103e-02 1.35593221e-01 1.35593221e-01 8.47457647e-02
      6.77966103e-02 6.77966103e-02 1.01694912e-01 3.38983051e-02
      8.47457647e-02 1.01694912e-01 6.77966103e-02 5.08474559e-02</_>
    <_>
      6.55737668e-02 1.14754096e-01 9.83606502e-02 8.19672048e-02
      3.27868834e-02 3.27868834e-02 6.55737668e-02 9.83606502e-02
      6.55737668e-02 1.47540972e-01 1.31147534e-01 6.55737668e-02</_>
    <_>
      1.79999992e-01 3.99999991e-02 5.99999987e-02 9.99999940e-02
      3.99999991e-02 1.19999997e-01 1.19999997e-01 5.99999987e-02 0.
      1.79999992e-01 3.99999991e-02 5.99999987e-02</_>
    <_>
      3.63636352e-02 9.09090862e-02 9.09090862e-02 3.63636352e-02
      1.81818176e-02 1.09090909e-01 7.27272704e-02 0. 7.27272704e-02
      1.99999988e-01 7.27272704e-02 1.99999988e-01</_>
    <_>
      5.76923117e-02 5.76923117e-02 7.69230798e-02 5.76923117e-02
      7.69230798e-02 1.15384623e-01 9.61538479e-02 1.34615391e-01
      7.69230798e-02 1.15384623e-01 1.15384623e-01 1.92307699e-02</_>
    <_>
      1.30434781e-01 1.08695656e-01 8.69565234e-02 6.52173907e-02
      8.69565234e-02 1.52173921e-01 6.52173907e-02 1.08695656e-01
      2.17391308e-02 1.08695656e-01 4.34782617e-02 2.17391308e-02</_>
    <_>
      4.44444455e-02 2.22222224e-01 1.77777782e-01 6.66666701e-02
      6.66666701e-02 4.44444455e-02 4.44444455e-02 2.22222228e-02
      4.44444455e-02 1.55555561e-01 6.66666701e-02 4.44444455e-02</_>
    <_>
      4.16666679e-02 8.33333358e-02 2.08333340e-02 2.50000000e-01
      8.33333358e-02 6.25000000e-02 6.25000000e-02 1.87500000e-01
      6.25000000e-02 6.25000000e-02 2.08333340e-02 6.25000000e-02</_>
    <_>
      4.34782617e-02 1.73913047e-01 2.17391308e-02 6.52173907e-02
      2.17391308e-02 1.30434781e-01 0. 6.52173907e-02 1.30434781e-01
      1.52173921e-01 1.08695656e-01 8.69565234e-02</_>
    <_>
      3.63636352e-02 7.27272704e-02 1.27272725e-01 5.45454547e-02
      1.81818176e-02 3.63636352e-02 5.45454547e-02 5.45454547e-02
      1.81818172e-01 7.27272704e-02 2.18181819e-01 7.27272704e-02</_>
    <_>
      1.17647067e-01 3.92156877e-02 5.88235334e-02 1.56862751e-01 0.
      9.80392173e-02 9.80392173e-02 5.88235334e-02 1.17647067e-01
      1.17647067e-01 3.92156877e-02 9.80392173e-02</_>
    <_>
      1.16666675e-01 1.66666675e-02 2.00000018e-01 1.00000009e-01
      5.00000045e-02 8.33333358e-02 6.66666701e-02 5.00000045e-02
      6.66666701e-02 1.50000006e-01 8.33333358e-02 1.66666675e-02</_>
    <_>
      6.52173907e-02 2.39130437e-01 2.17391308e-02 6.52173907e-02
      2.17391308e-02 8.69565234e-02 6.52173907e-02 4.34782617e-02
      1.30434781e-01 6.52173907e-02 1.30434781e-01 6.52173907e-02</_>
    <_>
      0. 1.96428582e-01 3.57142873e-02 1.42857149e-01 7.14285746e-02
      7.14285746e-02 3.57142873e-02 5.35714328e-02 8.92857164e-02
      1.42857149e-01 5.35714328e-02 1.07142866e-01</_>
    <_>
      3.70370373e-02 1.29629627e-01 7.40740746e-02 9.25925970e-02
      5.55555560e-02 1.11111112e-01 1.85185187e-02 9.25925970e-02
      1.48148149e-01 7.40740746e-02 9.25925970e-02 7.40740746e-02</_>
    <_>
      5.55555560e-02 1.11111112e-01 1.38888896e-01 2.77777780e-02
      2.77777780e-02 0. 5.55555560e-02 8.33333358e-02 1.38888896e-01
      1.66666672e-01 1.66666672e-01 2.77777780e-02</_>
    <_>
      7.54716992e-02 5.66037744e-02 1.32075474e-01 1.88679248e-01 0.
      1.69811323e-01 7.54716992e-02 5.66037744e-02 3.77358496e-02
      1.32075474e-01 3.77358496e-02 3.77358496e-02</_>
    <_>
      7.69230798e-02 1.53846160e-01 3.84615399e-02 1.15384623e-01
      5.76923117e-02 3.84615399e-02 1.34615391e-01 5.76923117e-02
      7.69230798e-02 1.15384623e-01 3.84615399e-02 9.61538479e-02</_>
    <_>
      1.96078435e-01 3.92156877e-02 5.88235334e-02 1.17647067e-01
      1.96078438e-02 5.88235334e-02 1.56862751e-01 9.80392173e-02
      5.88235334e-02 5.88235334e-02 3.92156877e-02 9.80392173e-02</_>
    <_>
      1.61764711e-01 1.47058824e-02 2.94117648e-02 8.82352963e-02
      7.35294148e-02 1.17647059e-01 1.02941178e-01 1.02941178e-01
      1.02941178e-01 7.35294148e-02 7.35294148e-02 5.88235296e-02</_>
    <_>
      4.91803251e-02 3.27868834e-02 8.19672048e-02 9.83606502e-02 0.
      9.83606502e-02 1.31147534e-01 8.19672048e-02 9.83606502e-02
      1.14754096e-01 1.63934410e-01 4.91803251e-02</_>
    <_>
      7.57575780e-02 2.42424250e-01 3.03030312e-02 6.06060624e-02
      3.03030312e-02 9.09090936e-02 3.03030312e-02 1.06060609e-01
      4.54545468e-02 4.54545468e-02 7.57575780e-02 1.66666672e-01</_>
    <_>
      1.08108111e-01 5.40540554e-02 3.24324340e-01 8.10810849e-02
      2.70270277e-02 2.70270277e-02 2.70270277e-02 2.70270277e-02
      2.70270277e-02 1.62162170e-01 1.08108111e-01 2.70270277e-02</_>
    <_>
      1.57894731e-01 2.28070170e-01 1.75438598e-02 3.50877196e-02
      8.77192989e-02 3.50877196e-02 7.01754391e-02 8.77192989e-02
      3.50877196e-02 8.77192989e-02 8.77192989e-02 7.01754391e-02</_>
    <_>
      1.40000001e-01 9.99999940e-02 7.99999982e-02 1.99999996e-02
      7.99999982e-02 9.99999940e-02 9.99999940e-02 9.99999940e-02
      3.99999991e-02 0. 3.99999991e-02 1.99999988e-01</_>
    <_>
      3.99999991e-02 9.99999940e-02 1.19999997e-01 3.99999991e-02
      1.99999996e-02 1.19999997e-01 1.19999997e-01 7.99999982e-02
      5.99999987e-02 1.99999988e-01 5.99999987e-02 3.99999991e-02</_>
    <_>
      5.79710156e-02 0. 1.15942031e-01 1.01449281e-01 8.69565234e-02
      1.30434781e-01 5.79710156e-02 0. 1.01449281e-01 1.88405797e-01
      5.79710156e-02 1.01449281e-01</_>
    <_>
      8.47457647e-02 6.77966103e-02 1.69491529e-01 1.18644066e-01
      1.01694912e-01 1.69491526e-02 1.18644066e-01 5.08474559e-02 0.
      1.35593221e-01 6.77966103e-02 6.77966103e-02</_>
    <_>
      1.26582280e-01 7.59493709e-02 0. 1.26582280e-01 7.59493709e-02
      8.86075944e-02 1.51898742e-01 7.59493709e-02 6.32911399e-02
      5.06329127e-02 7.59493709e-02 8.86075944e-02</_>
    <_>
      7.27272704e-02 0. 1.18181817e-01 1.09090909e-01 5.45454547e-02
      1.63636357e-01 9.09090862e-02 8.18181783e-02 9.09090862e-02
      1.45454541e-01 5.45454547e-02 1.81818176e-02</_>
    <_>
      9.09090936e-02 3.03030312e-02 6.06060624e-02 1.06060609e-01
      4.54545468e-02 1.51515156e-01 4.54545468e-02 4.54545468e-02
      1.51515156e-01 7.57575780e-02 1.81818187e-01 1.51515156e-02</_>
    <_>
      0. 1.16279066e-01 1.86046511e-01 0. 2.32558139e-02 0.
      4.65116277e-02 6.97674453e-02 9.30232555e-02 2.32558131e-01
      1.62790701e-01 6.97674453e-02</_>
    <_>
      7.24637657e-02 2.89855078e-02 1.30434781e-01 7.24637657e-02
      4.34782617e-02 1.15942031e-01 1.01449281e-01 2.89855078e-02
      1.44927539e-02 2.31884062e-01 1.01449281e-01 5.79710156e-02</_>
    <_>
      5.26315793e-02 5.26315793e-02 7.89473653e-02 1.05263159e-01 0.
      7.89473653e-02 1.84210524e-01 1.31578952e-01 5.26315793e-02
      1.05263159e-01 1.31578952e-01 2.63157897e-02</_>
    <_>
      7.84313753e-02 1.17647067e-01 7.84313753e-02 9.80392173e-02
      5.88235334e-02 9.80392173e-02 7.84313753e-02 7.84313753e-02
      1.96078438e-02 1.76470593e-01 1.96078438e-02 9.80392173e-02</_>
    <_>
      1.16279066e-01 1.62790701e-01 2.32558139e-02 0. 4.65116277e-02
      1.39534891e-01 1.16279066e-01 4.65116277e-02 4.65116277e-02
      9.30232555e-02 9.30232555e-02 1.16279066e-01</_>
    <_>
      1.39534891e-01 2.32558131e-01 0. 2.32558139e-02 6.97674453e-02
      4.65116277e-02 9.30232555e-02 1.86046511e-01 2.32558139e-02
      9.30232555e-02 0. 9.30232555e-02</_>
    <_>
      8.33333358e-02 8.33333358e-02 8.33333358e-02 1.25000000e-01
      1.04166672e-01 1.25000000e-01 8.33333358e-02 2.08333340e-02
      4.16666679e-02 1.25000000e-01 2.08333340e-02 1.04166672e-01</_>
    <_>
      2.08333340e-02 1.04166672e-01 1.45833343e-01 0. 6.25000000e-02
      1.04166672e-01 1.04166672e-01 0. 8.33333358e-02 1.04166672e-01
      1.25000000e-01 1.45833343e-01</_></support_vectors>
  <decision_functions>
    <_>
      <sv_count>119</sv_count>
      <rho>-9.2507101148200839e+00</rho>
      <alpha>
        50. 50. 50. 50. 50. 50. 50. 50. 50. 50. 50. 50. 50. 50. 50. 50.
        50. 50. 50. 50. 50. 50. 50. 2.9281669989450389e+01 50. 50.
        8.2911191323258233e+00 50. 50. 50. 50. 50.
        1.0572904378859653e+00 7.4151047890810888e+00 50. 50. 50. 50.
        50. 2.0796196841485177e+01 50. 50. 4.9571856581339460e+01 50.
        50. 50. 50. 50. 50. 50. 50. 50. 50. 50. 50. 50. 50.
        6.7145464630468021e-01 50. -50. -50. -50. -50. -50.
        -1.6980635174632017e+01 -50. -50. -50. -50. -50. -50.
        -3.2673943030872756e+01 -50. -50. -50. -50. -50. -50. -50.
        -1.5557254374882085e+01 -50. -50. -50. -50. -50. -50. -50. -50.
        -2.8496740361544294e+01 -8.7788039348947482e+00 -50. -50.
        -6.2751581658942381e+00 -1.7236793828548020e+01 -50. -50. -50.
        -50. -50. -50. -50. -50. -50. -50. -50. -50. -50.
        -2.8444678875654144e+01 -1.2640684670950289e+01 -50. -50. -50.
        -50. -50. -50. -50. -50. -50. -50.</alpha>
      <index>
        1 117 115 113 111 3 110 5 109 7 107 105 8 104 103 10 102 11 12
        14 101 99 17 97 95 93 23 25 90 27 29 31 33 87 85 34 36 82 37 79
        39 77 75 42 73 44 46 70 48 68 51 66 53 64 54 62 60 56 58 0 57 61
        55 63 65 52 67 50 49 69 47 71 45 72 74 43 41 76 40 78 80 38 81
        35 83 84 86 88 32 30 28 89 26 91 24 92 22 21 94 20 19 96 18 98
        16 100 15 13 9 106 108 6 4 112 2 114 116 118 59</index></_></decision_functions></opencv_ml_svm>
</opencv_storage>
